#pragma once
#include <cstdarg>
namespace Eloquent {
    namespace ML {
        namespace Port {
            class RandomForest {
                public:
                    /**
                    * Predict class for features vector
                    */
                    int predict(float *x) {
                        uint8_t votes[3] = { 0 };
                        // tree #1
                        if (x[4] <= -0.45500798523426056) {
                            if (x[2] <= -0.11089717596769333) {
                                votes[2] += 1;
                            }

                            else {
                                if (x[1] <= -0.06429696083068848) {
                                    votes[2] += 1;
                                }

                                else {
                                    votes[1] += 1;
                                }
                            }
                        }

                        else {
                            if (x[4] <= -0.4013269692659378) {
                                if (x[0] <= 0.937764436006546) {
                                    if (x[2] <= -0.08173898607492447) {
                                        if (x[1] <= 0.937767744064331) {
                                            if (x[0] <= 0.937763899564743) {
                                                if (x[1] <= 0.9377670586109161) {
                                                    if (x[1] <= 0.9377667605876923) {
                                                        votes[0] += 1;
                                                    }

                                                    else {
                                                        if (x[4] <= -0.42924579977989197) {
                                                            votes[0] += 1;
                                                        }

                                                        else {
                                                            if (x[2] <= -0.08377284929156303) {
                                                                votes[0] += 1;
                                                            }

                                                            else {
                                                                votes[1] += 1;
                                                            }
                                                        }
                                                    }
                                                }

                                                else {
                                                    if (x[2] <= -0.09819477796554565) {
                                                        if (x[0] <= 0.9377553761005402) {
                                                            if (x[3] <= -0.3196881264448166) {
                                                                votes[1] += 1;
                                                            }

                                                            else {
                                                                votes[0] += 1;
                                                            }
                                                        }

                                                        else {
                                                            votes[1] += 1;
                                                        }
                                                    }

                                                    else {
                                                        if (x[4] <= -0.4459701031446457) {
                                                            votes[1] += 1;
                                                        }

                                                        else {
                                                            if (x[3] <= -0.23706020414829254) {
                                                                votes[0] += 1;
                                                            }

                                                            else {
                                                                votes[0] += 1;
                                                            }
                                                        }
                                                    }
                                                }
                                            }

                                            else {
                                                if (x[4] <= -0.42789706587791443) {
                                                    votes[1] += 1;
                                                }

                                                else {
                                                    votes[0] += 1;
                                                }
                                            }
                                        }

                                        else {
                                            if (x[2] <= -0.12629906088113785) {
                                                votes[0] += 1;
                                            }

                                            else {
                                                if (x[3] <= -0.23706020414829254) {
                                                    if (x[4] <= -0.44071003794670105) {
                                                        votes[1] += 1;
                                                    }

                                                    else {
                                                        if (x[1] <= 0.9377689361572266) {
                                                            votes[1] += 1;
                                                        }

                                                        else {
                                                            if (x[2] <= -0.08469732850790024) {
                                                                votes[0] += 1;
                                                            }

                                                            else {
                                                                votes[1] += 1;
                                                            }
                                                        }
                                                    }
                                                }

                                                else {
                                                    if (x[1] <= 0.937771201133728) {
                                                        if (x[2] <= -0.10318698734045029) {
                                                            if (x[4] <= -0.43099914491176605) {
                                                                votes[0] += 1;
                                                            }

                                                            else {
                                                                votes[1] += 1;
                                                            }
                                                        }

                                                        else {
                                                            if (x[2] <= -0.10133802145719528) {
                                                                votes[1] += 1;
                                                            }

                                                            else {
                                                                votes[1] += 1;
                                                            }
                                                        }
                                                    }

                                                    else {
                                                        votes[0] += 1;
                                                    }
                                                }
                                            }
                                        }
                                    }

                                    else {
                                        if (x[4] <= -0.45042093098163605) {
                                            if (x[2] <= -0.07619208842515945) {
                                                if (x[1] <= 0.9377671778202057) {
                                                    votes[0] += 1;
                                                }

                                                else {
                                                    votes[1] += 1;
                                                }
                                            }

                                            else {
                                                votes[1] += 1;
                                            }
                                        }

                                        else {
                                            if (x[1] <= 0.9377668797969818) {
                                                if (x[1] <= 0.9377656877040863) {
                                                    votes[0] += 1;
                                                }

                                                else {
                                                    if (x[1] <= 0.937765896320343) {
                                                        votes[1] += 1;
                                                    }

                                                    else {
                                                        if (x[2] <= -0.016470492351800203) {
                                                            if (x[1] <= 0.9377666413784027) {
                                                                votes[0] += 1;
                                                            }

                                                            else {
                                                                votes[0] += 1;
                                                            }
                                                        }

                                                        else {
                                                            if (x[1] <= 0.9377663731575012) {
                                                                votes[0] += 1;
                                                            }

                                                            else {
                                                                votes[1] += 1;
                                                            }
                                                        }
                                                    }
                                                }
                                            }

                                            else {
                                                if (x[4] <= -0.43099914491176605) {
                                                    if (x[4] <= -0.44151927530765533) {
                                                        if (x[4] <= -0.450151190161705) {
                                                            votes[0] += 1;
                                                        }

                                                        else {
                                                            if (x[0] <= 0.9377261698246002) {
                                                                votes[0] += 1;
                                                            }

                                                            else {
                                                                votes[1] += 1;
                                                            }
                                                        }
                                                    }

                                                    else {
                                                        if (x[1] <= 0.9377706050872803) {
                                                            if (x[2] <= -0.037363805808126926) {
                                                                votes[0] += 1;
                                                            }

                                                            else {
                                                                votes[0] += 1;
                                                            }
                                                        }

                                                        else {
                                                            if (x[1] <= 0.9377714991569519) {
                                                                votes[1] += 1;
                                                            }

                                                            else {
                                                                votes[0] += 1;
                                                            }
                                                        }
                                                    }
                                                }

                                                else {
                                                    if (x[4] <= -0.4109029918909073) {
                                                        votes[1] += 1;
                                                    }

                                                    else {
                                                        votes[0] += 1;
                                                    }
                                                }
                                            }
                                        }
                                    }
                                }

                                else {
                                    if (x[3] <= -0.3196881264448166) {
                                        if (x[1] <= 0.9377653002738953) {
                                            votes[0] += 1;
                                        }

                                        else {
                                            votes[1] += 1;
                                        }
                                    }

                                    else {
                                        if (x[2] <= -0.11927299201488495) {
                                            votes[0] += 1;
                                        }

                                        else {
                                            votes[1] += 1;
                                        }
                                    }
                                }
                            }

                            else {
                                if (x[0] <= 0.9377566277980804) {
                                    if (x[3] <= -0.40231604874134064) {
                                        votes[0] += 1;
                                    }

                                    else {
                                        if (x[4] <= -0.38730011880397797) {
                                            if (x[4] <= -0.4005177319049835) {
                                                if (x[4] <= -0.40078748762607574) {
                                                    votes[1] += 1;
                                                }

                                                else {
                                                    votes[0] += 1;
                                                }
                                            }

                                            else {
                                                votes[1] += 1;
                                            }
                                        }

                                        else {
                                            votes[0] += 1;
                                        }
                                    }
                                }

                                else {
                                    votes[1] += 1;
                                }
                            }
                        }

                        // tree #2
                        if (x[1] <= -0.06431043148040771) {
                            votes[2] += 1;
                        }

                        else {
                            if (x[0] <= 0.937766969203949) {
                                if (x[1] <= 0.9377672970294952) {
                                    if (x[1] <= 0.9377657473087311) {
                                        if (x[3] <= -0.1544322781264782) {
                                            votes[0] += 1;
                                        }

                                        else {
                                            if (x[0] <= 0.9377612471580505) {
                                                votes[0] += 1;
                                            }

                                            else {
                                                votes[1] += 1;
                                            }
                                        }
                                    }

                                    else {
                                        if (x[2] <= -0.07730146870017052) {
                                            if (x[4] <= -0.45338815450668335) {
                                                votes[1] += 1;
                                            }

                                            else {
                                                if (x[2] <= -0.08654629439115524) {
                                                    if (x[1] <= 0.9377661049365997) {
                                                        if (x[0] <= 0.93775874376297) {
                                                            if (x[1] <= 0.937766045331955) {
                                                                votes[0] += 1;
                                                            }

                                                            else {
                                                                votes[1] += 1;
                                                            }
                                                        }

                                                        else {
                                                            votes[1] += 1;
                                                        }
                                                    }

                                                    else {
                                                        if (x[1] <= 0.937766820192337) {
                                                            votes[0] += 1;
                                                        }

                                                        else {
                                                            if (x[0] <= 0.9377541244029999) {
                                                                votes[0] += 1;
                                                            }

                                                            else {
                                                                votes[0] += 1;
                                                            }
                                                        }
                                                    }
                                                }

                                                else {
                                                    if (x[3] <= -0.1544322781264782) {
                                                        if (x[2] <= -0.08562181144952774) {
                                                            votes[1] += 1;
                                                        }

                                                        else {
                                                            if (x[1] <= 0.9377663433551788) {
                                                                votes[0] += 1;
                                                            }

                                                            else {
                                                                votes[0] += 1;
                                                            }
                                                        }
                                                    }

                                                    else {
                                                        votes[0] += 1;
                                                    }
                                                }
                                            }
                                        }

                                        else {
                                            if (x[1] <= 0.9377659261226654) {
                                                votes[1] += 1;
                                            }

                                            else {
                                                if (x[1] <= 0.9377661943435669) {
                                                    votes[0] += 1;
                                                }

                                                else {
                                                    if (x[0] <= 0.9377391934394836) {
                                                        if (x[3] <= -0.3196881264448166) {
                                                            votes[1] += 1;
                                                        }

                                                        else {
                                                            votes[0] += 1;
                                                        }
                                                    }

                                                    else {
                                                        if (x[4] <= -0.40941938757896423) {
                                                            if (x[2] <= -0.07563740015029907) {
                                                                votes[0] += 1;
                                                            }

                                                            else {
                                                                votes[1] += 1;
                                                            }
                                                        }

                                                        else {
                                                            votes[0] += 1;
                                                        }
                                                    }
                                                }
                                            }
                                        }
                                    }
                                }

                                else {
                                    if (x[1] <= 0.9377710521221161) {
                                        if (x[2] <= -0.11502036824822426) {
                                            if (x[4] <= -0.4305945187807083) {
                                                if (x[4] <= -0.44151927530765533) {
                                                    if (x[4] <= -0.4421936422586441) {
                                                        votes[0] += 1;
                                                    }

                                                    else {
                                                        votes[1] += 1;
                                                    }
                                                }

                                                else {
                                                    votes[0] += 1;
                                                }
                                            }

                                            else {
                                                if (x[1] <= 0.9377679526805878) {
                                                    if (x[3] <= -0.3196881264448166) {
                                                        votes[1] += 1;
                                                    }

                                                    else {
                                                        votes[0] += 1;
                                                    }
                                                }

                                                else {
                                                    if (x[2] <= -0.11945788934826851) {
                                                        if (x[4] <= -0.38918834924697876) {
                                                            votes[1] += 1;
                                                        }

                                                        else {
                                                            votes[0] += 1;
                                                        }
                                                    }

                                                    else {
                                                        votes[1] += 1;
                                                    }
                                                }
                                            }
                                        }

                                        else {
                                            if (x[4] <= -0.44151927530765533) {
                                                if (x[2] <= -0.10133802518248558) {
                                                    if (x[1] <= 0.9377677142620087) {
                                                        votes[0] += 1;
                                                    }

                                                    else {
                                                        if (x[2] <= -0.10614533349871635) {
                                                            votes[1] += 1;
                                                        }

                                                        else {
                                                            if (x[3] <= -0.11311831884086132) {
                                                                votes[1] += 1;
                                                            }

                                                            else {
                                                                votes[0] += 1;
                                                            }
                                                        }
                                                    }
                                                }

                                                else {
                                                    if (x[1] <= 0.9377675354480743) {
                                                        if (x[4] <= -0.44556547701358795) {
                                                            votes[1] += 1;
                                                        }

                                                        else {
                                                            votes[0] += 1;
                                                        }
                                                    }

                                                    else {
                                                        votes[1] += 1;
                                                    }
                                                }
                                            }

                                            else {
                                                if (x[0] <= 0.9377359747886658) {
                                                    if (x[0] <= 0.9377300441265106) {
                                                        if (x[1] <= 0.9377680718898773) {
                                                            votes[0] += 1;
                                                        }

                                                        else {
                                                            if (x[4] <= -0.438282310962677) {
                                                                votes[0] += 1;
                                                            }

                                                            else {
                                                                votes[1] += 1;
                                                            }
                                                        }
                                                    }

                                                    else {
                                                        if (x[2] <= -0.012957457453012466) {
                                                            if (x[3] <= -0.3196881264448166) {
                                                                votes[1] += 1;
                                                            }

                                                            else {
                                                                votes[0] += 1;
                                                            }
                                                        }

                                                        else {
                                                            votes[1] += 1;
                                                        }
                                                    }
                                                }

                                                else {
                                                    if (x[3] <= -0.40231604874134064) {
                                                        votes[0] += 1;
                                                    }

                                                    else {
                                                        if (x[3] <= -0.23706020414829254) {
                                                            if (x[0] <= 0.9377451241016388) {
                                                                votes[1] += 1;
                                                            }

                                                            else {
                                                                votes[1] += 1;
                                                            }
                                                        }

                                                        else {
                                                            if (x[4] <= -0.43113401532173157) {
                                                                votes[0] += 1;
                                                            }

                                                            else {
                                                                votes[1] += 1;
                                                            }
                                                        }
                                                    }
                                                }
                                            }
                                        }
                                    }

                                    else {
                                        if (x[2] <= 0.0022040633484721184) {
                                            votes[0] += 1;
                                        }

                                        else {
                                            if (x[4] <= -0.4022710770368576) {
                                                votes[1] += 1;
                                            }

                                            else {
                                                votes[0] += 1;
                                            }
                                        }
                                    }
                                }
                            }

                            else {
                                votes[1] += 1;
                            }
                        }

                        // tree #3
                        if (x[1] <= -0.06431043148040771) {
                            votes[2] += 1;
                        }

                        else {
                            if (x[4] <= 0.06088461587205529) {
                                if (x[2] <= -0.09764008969068527) {
                                    if (x[1] <= 0.9377677738666534) {
                                        if (x[4] <= -0.45352302491664886) {
                                            votes[1] += 1;
                                        }

                                        else {
                                            if (x[0] <= 0.9377689063549042) {
                                                if (x[3] <= -0.1544322781264782) {
                                                    if (x[4] <= -0.4264134466648102) {
                                                        if (x[1] <= 0.937766820192337) {
                                                            if (x[4] <= -0.4381474405527115) {
                                                                votes[0] += 1;
                                                            }

                                                            else {
                                                                votes[0] += 1;
                                                            }
                                                        }

                                                        else {
                                                            if (x[4] <= -0.42924579977989197) {
                                                                votes[0] += 1;
                                                            }

                                                            else {
                                                                votes[1] += 1;
                                                            }
                                                        }
                                                    }

                                                    else {
                                                        votes[0] += 1;
                                                    }
                                                }

                                                else {
                                                    if (x[1] <= 0.9377661049365997) {
                                                        if (x[2] <= -0.12297092005610466) {
                                                            votes[1] += 1;
                                                        }

                                                        else {
                                                            votes[0] += 1;
                                                        }
                                                    }

                                                    else {
                                                        votes[0] += 1;
                                                    }
                                                }
                                            }

                                            else {
                                                votes[1] += 1;
                                            }
                                        }
                                    }

                                    else {
                                        if (x[4] <= -0.44151927530765533) {
                                            if (x[0] <= 0.9377486407756805) {
                                                if (x[4] <= -0.450151190161705) {
                                                    if (x[4] <= -0.45338815450668335) {
                                                        votes[1] += 1;
                                                    }

                                                    else {
                                                        votes[0] += 1;
                                                    }
                                                }

                                                else {
                                                    votes[1] += 1;
                                                }
                                            }

                                            else {
                                                if (x[4] <= -0.4421936422586441) {
                                                    if (x[4] <= -0.44556549191474915) {
                                                        if (x[4] <= -0.45069068670272827) {
                                                            votes[0] += 1;
                                                        }

                                                        else {
                                                            votes[1] += 1;
                                                        }
                                                    }

                                                    else {
                                                        votes[0] += 1;
                                                    }
                                                }

                                                else {
                                                    votes[1] += 1;
                                                }
                                            }
                                        }

                                        else {
                                            if (x[1] <= 0.9377707839012146) {
                                                if (x[4] <= -0.43099914491176605) {
                                                    if (x[1] <= 0.9377703964710236) {
                                                        if (x[1] <= 0.9377700090408325) {
                                                            votes[0] += 1;
                                                        }

                                                        else {
                                                            if (x[1] <= 0.9377701580524445) {
                                                                votes[1] += 1;
                                                            }

                                                            else {
                                                                votes[0] += 1;
                                                            }
                                                        }
                                                    }

                                                    else {
                                                        votes[1] += 1;
                                                    }
                                                }

                                                else {
                                                    if (x[4] <= -0.38716524839401245) {
                                                        votes[1] += 1;
                                                    }

                                                    else {
                                                        votes[0] += 1;
                                                    }
                                                }
                                            }

                                            else {
                                                votes[0] += 1;
                                            }
                                        }
                                    }
                                }

                                else {
                                    if (x[1] <= 0.9377670586109161) {
                                        if (x[2] <= -0.08044470846652985) {
                                            if (x[1] <= 0.9377616345882416) {
                                                votes[1] += 1;
                                            }

                                            else {
                                                if (x[2] <= -0.09690050408244133) {
                                                    votes[1] += 1;
                                                }

                                                else {
                                                    if (x[4] <= -0.4512301832437515) {
                                                        if (x[2] <= -0.08284836634993553) {
                                                            if (x[2] <= -0.09116870909929276) {
                                                                votes[1] += 1;
                                                            }

                                                            else {
                                                                votes[0] += 1;
                                                            }
                                                        }

                                                        else {
                                                            votes[1] += 1;
                                                        }
                                                    }

                                                    else {
                                                        if (x[2] <= -0.09542133286595345) {
                                                            if (x[0] <= 0.9377630650997162) {
                                                                votes[0] += 1;
                                                            }

                                                            else {
                                                                votes[1] += 1;
                                                            }
                                                        }

                                                        else {
                                                            if (x[0] <= 0.9377671480178833) {
                                                                votes[0] += 1;
                                                            }

                                                            else {
                                                                votes[1] += 1;
                                                            }
                                                        }
                                                    }
                                                }
                                            }
                                        }

                                        else {
                                            if (x[0] <= 0.9377625584602356) {
                                                if (x[0] <= 0.9377434253692627) {
                                                    if (x[0] <= 0.9377396404743195) {
                                                        votes[0] += 1;
                                                    }

                                                    else {
                                                        if (x[0] <= 0.9377405345439911) {
                                                            votes[1] += 1;
                                                        }

                                                        else {
                                                            if (x[4] <= -0.4332920014858246) {
                                                                votes[0] += 1;
                                                            }

                                                            else {
                                                                votes[1] += 1;
                                                            }
                                                        }
                                                    }
                                                }

                                                else {
                                                    if (x[3] <= -0.1544322781264782) {
                                                        votes[0] += 1;
                                                    }

                                                    else {
                                                        if (x[2] <= -0.04032215103507042) {
                                                            if (x[1] <= 0.9377664029598236) {
                                                                votes[0] += 1;
                                                            }

                                                            else {
                                                                votes[0] += 1;
                                                            }
                                                        }

                                                        else {
                                                            votes[1] += 1;
                                                        }
                                                    }
                                                }
                                            }

                                            else {
                                                votes[1] += 1;
                                            }
                                        }
                                    }

                                    else {
                                        if (x[4] <= -0.44151927530765533) {
                                            if (x[3] <= -0.071804353967309) {
                                                if (x[1] <= 0.9377687573432922) {
                                                    if (x[0] <= 0.9377276003360748) {
                                                        votes[0] += 1;
                                                    }

                                                    else {
                                                        if (x[1] <= 0.9377676248550415) {
                                                            if (x[1] <= 0.9377674162387848) {
                                                                votes[1] += 1;
                                                            }

                                                            else {
                                                                votes[0] += 1;
                                                            }
                                                        }

                                                        else {
                                                            votes[1] += 1;
                                                        }
                                                    }
                                                }

                                                else {
                                                    votes[1] += 1;
                                                }
                                            }

                                            else {
                                                if (x[1] <= 0.9377694129943848) {
                                                    votes[0] += 1;
                                                }

                                                else {
                                                    votes[1] += 1;
                                                }
                                            }
                                        }

                                        else {
                                            if (x[1] <= 0.9377700984477997) {
                                                if (x[4] <= -0.43099914491176605) {
                                                    if (x[0] <= 0.9377399981021881) {
                                                        votes[0] += 1;
                                                    }

                                                    else {
                                                        if (x[0] <= 0.9377509355545044) {
                                                            votes[1] += 1;
                                                        }

                                                        else {
                                                            votes[0] += 1;
                                                        }
                                                    }
                                                }

                                                else {
                                                    if (x[4] <= -0.4109029918909073) {
                                                        votes[1] += 1;
                                                    }

                                                    else {
                                                        if (x[0] <= 0.9377442300319672) {
                                                            if (x[0] <= 0.9377425312995911) {
                                                                votes[1] += 1;
                                                            }

                                                            else {
                                                                votes[0] += 1;
                                                            }
                                                        }

                                                        else {
                                                            votes[1] += 1;
                                                        }
                                                    }
                                                }
                                            }

                                            else {
                                                if (x[4] <= -0.44057516753673553) {
                                                    votes[1] += 1;
                                                }

                                                else {
                                                    if (x[0] <= 0.9377339482307434) {
                                                        votes[1] += 1;
                                                    }

                                                    else {
                                                        if (x[2] <= 0.08392835035920143) {
                                                            votes[0] += 1;
                                                        }

                                                        else {
                                                            votes[1] += 1;
                                                        }
                                                    }
                                                }
                                            }
                                        }
                                    }
                                }
                            }

                            else {
                                if (x[1] <= 0.9377661049365997) {
                                    votes[0] += 1;
                                }

                                else {
                                    votes[1] += 1;
                                }
                            }
                        }

                        // tree #4
                        if (x[0] <= -0.06435400247573853) {
                            votes[2] += 1;
                        }

                        else {
                            if (x[1] <= 0.9377675950527191) {
                                if (x[2] <= -0.07841084524989128) {
                                    if (x[0] <= 0.9377671480178833) {
                                        if (x[4] <= -0.45338815450668335) {
                                            votes[1] += 1;
                                        }

                                        else {
                                            if (x[2] <= -0.08247857168316841) {
                                                if (x[4] <= -0.4266832023859024) {
                                                    if (x[4] <= -0.42803192138671875) {
                                                        if (x[4] <= -0.43787769973278046) {
                                                            if (x[0] <= 0.9377535879611969) {
                                                                votes[0] += 1;
                                                            }

                                                            else {
                                                                votes[0] += 1;
                                                            }
                                                        }

                                                        else {
                                                            if (x[0] <= 0.9377601742744446) {
                                                                votes[0] += 1;
                                                            }

                                                            else {
                                                                votes[1] += 1;
                                                            }
                                                        }
                                                    }

                                                    else {
                                                        votes[1] += 1;
                                                    }
                                                }

                                                else {
                                                    votes[0] += 1;
                                                }
                                            }

                                            else {
                                                if (x[4] <= -0.45055581629276276) {
                                                    votes[1] += 1;
                                                }

                                                else {
                                                    if (x[0] <= 0.9377444684505463) {
                                                        if (x[0] <= 0.9377407133579254) {
                                                            votes[0] += 1;
                                                        }

                                                        else {
                                                            votes[1] += 1;
                                                        }
                                                    }

                                                    else {
                                                        votes[0] += 1;
                                                    }
                                                }
                                            }
                                        }
                                    }

                                    else {
                                        votes[1] += 1;
                                    }
                                }

                                else {
                                    if (x[3] <= -0.40231604874134064) {
                                        votes[0] += 1;
                                    }

                                    else {
                                        if (x[0] <= 0.9377649426460266) {
                                            if (x[1] <= 0.9377672374248505) {
                                                if (x[1] <= 0.9377657175064087) {
                                                    votes[0] += 1;
                                                }

                                                else {
                                                    if (x[3] <= -0.23706020414829254) {
                                                        if (x[2] <= -0.0619550496339798) {
                                                            if (x[0] <= 0.937746524810791) {
                                                                votes[1] += 1;
                                                            }

                                                            else {
                                                                votes[0] += 1;
                                                            }
                                                        }

                                                        else {
                                                            votes[0] += 1;
                                                        }
                                                    }

                                                    else {
                                                        if (x[0] <= 0.9377376735210419) {
                                                            votes[0] += 1;
                                                        }

                                                        else {
                                                            if (x[0] <= 0.9377560913562775) {
                                                                votes[1] += 1;
                                                            }

                                                            else {
                                                                votes[1] += 1;
                                                            }
                                                        }
                                                    }
                                                }
                                            }

                                            else {
                                                if (x[4] <= -0.4109029918909073) {
                                                    if (x[0] <= 0.9377296268939972) {
                                                        votes[0] += 1;
                                                    }

                                                    else {
                                                        if (x[1] <= 0.9377674162387848) {
                                                            votes[1] += 1;
                                                        }

                                                        else {
                                                            if (x[2] <= -0.07119987905025482) {
                                                                votes[0] += 1;
                                                            }

                                                            else {
                                                                votes[1] += 1;
                                                            }
                                                        }
                                                    }
                                                }

                                                else {
                                                    votes[0] += 1;
                                                }
                                            }
                                        }

                                        else {
                                            votes[1] += 1;
                                        }
                                    }
                                }
                            }

                            else {
                                if (x[0] <= 0.9377605319023132) {
                                    if (x[3] <= -0.071804353967309) {
                                        if (x[4] <= -0.44151927530765533) {
                                            if (x[4] <= -0.4421936422586441) {
                                                if (x[2] <= -0.1264839544892311) {
                                                    votes[0] += 1;
                                                }

                                                else {
                                                    if (x[2] <= -0.09338746964931488) {
                                                        if (x[4] <= -0.44556549191474915) {
                                                            if (x[0] <= 0.9377293586730957) {
                                                                votes[0] += 1;
                                                            }

                                                            else {
                                                                votes[1] += 1;
                                                            }
                                                        }

                                                        else {
                                                            votes[0] += 1;
                                                        }
                                                    }

                                                    else {
                                                        if (x[0] <= 0.937727153301239) {
                                                            if (x[2] <= -0.0584420133382082) {
                                                                votes[1] += 1;
                                                            }

                                                            else {
                                                                votes[0] += 1;
                                                            }
                                                        }

                                                        else {
                                                            votes[1] += 1;
                                                        }
                                                    }
                                                }
                                            }

                                            else {
                                                votes[1] += 1;
                                            }
                                        }

                                        else {
                                            if (x[1] <= 0.9377696514129639) {
                                                if (x[0] <= 0.9377344250679016) {
                                                    if (x[4] <= -0.43086427450180054) {
                                                        if (x[2] <= -0.040137254633009434) {
                                                            votes[0] += 1;
                                                        }

                                                        else {
                                                            votes[1] += 1;
                                                        }
                                                    }

                                                    else {
                                                        votes[1] += 1;
                                                    }
                                                }

                                                else {
                                                    if (x[0] <= 0.9377556443214417) {
                                                        if (x[3] <= -0.23706020414829254) {
                                                            votes[1] += 1;
                                                        }

                                                        else {
                                                            if (x[4] <= -0.4361243396997452) {
                                                                votes[0] += 1;
                                                            }

                                                            else {
                                                                votes[1] += 1;
                                                            }
                                                        }
                                                    }

                                                    else {
                                                        if (x[1] <= 0.9377687871456146) {
                                                            votes[1] += 1;
                                                        }

                                                        else {
                                                            votes[0] += 1;
                                                        }
                                                    }
                                                }
                                            }

                                            else {
                                                if (x[2] <= -0.11557505652308464) {
                                                    votes[0] += 1;
                                                }

                                                else {
                                                    if (x[0] <= 0.9377332627773285) {
                                                        votes[1] += 1;
                                                    }

                                                    else {
                                                        if (x[4] <= -0.44057516753673553) {
                                                            votes[1] += 1;
                                                        }

                                                        else {
                                                            if (x[4] <= -0.4011920988559723) {
                                                                votes[0] += 1;
                                                            }

                                                            else {
                                                                votes[0] += 1;
                                                            }
                                                        }
                                                    }
                                                }
                                            }
                                        }
                                    }

                                    else {
                                        if (x[4] <= -0.4547368884086609) {
                                            votes[1] += 1;
                                        }

                                        else {
                                            votes[0] += 1;
                                        }
                                    }
                                }

                                else {
                                    votes[1] += 1;
                                }
                            }
                        }

                        // tree #5
                        if (x[2] <= -0.132530078291893) {
                            votes[2] += 1;
                        }

                        else {
                            if (x[1] <= 0.937767893075943) {
                                if (x[0] <= 0.9377670586109161) {
                                    if (x[1] <= -0.06431043148040771) {
                                        votes[2] += 1;
                                    }

                                    else {
                                        if (x[4] <= -0.45352302491664886) {
                                            votes[1] += 1;
                                        }

                                        else {
                                            if (x[1] <= 0.9377670586109161) {
                                                if (x[2] <= -0.0769316740334034) {
                                                    if (x[3] <= -0.1544322781264782) {
                                                        if (x[0] <= 0.9377535879611969) {
                                                            if (x[2] <= -0.08321815729141235) {
                                                                votes[0] += 1;
                                                            }

                                                            else {
                                                                votes[0] += 1;
                                                            }
                                                        }

                                                        else {
                                                            if (x[0] <= 0.9377539455890656) {
                                                                votes[1] += 1;
                                                            }

                                                            else {
                                                                votes[0] += 1;
                                                            }
                                                        }
                                                    }

                                                    else {
                                                        if (x[1] <= 0.9377661049365997) {
                                                            if (x[2] <= -0.12297092005610466) {
                                                                votes[1] += 1;
                                                            }

                                                            else {
                                                                votes[0] += 1;
                                                            }
                                                        }

                                                        else {
                                                            votes[0] += 1;
                                                        }
                                                    }
                                                }

                                                else {
                                                    if (x[4] <= -0.43504536151885986) {
                                                        if (x[0] <= 0.9377600848674774) {
                                                            if (x[0] <= 0.9377492666244507) {
                                                                votes[1] += 1;
                                                            }

                                                            else {
                                                                votes[0] += 1;
                                                            }
                                                        }

                                                        else {
                                                            if (x[1] <= 0.9377651810646057) {
                                                                votes[0] += 1;
                                                            }

                                                            else {
                                                                votes[1] += 1;
                                                            }
                                                        }
                                                    }

                                                    else {
                                                        if (x[2] <= -0.07434312254190445) {
                                                            if (x[3] <= -0.40231604874134064) {
                                                                votes[1] += 1;
                                                            }

                                                            else {
                                                                votes[0] += 1;
                                                            }
                                                        }

                                                        else {
                                                            if (x[4] <= -0.4082055240869522) {
                                                                votes[0] += 1;
                                                            }

                                                            else {
                                                                votes[0] += 1;
                                                            }
                                                        }
                                                    }
                                                }
                                            }

                                            else {
                                                if (x[2] <= -0.061030566692352295) {
                                                    if (x[0] <= 0.9377454817295074) {
                                                        if (x[0] <= 0.9377387464046478) {
                                                            if (x[0] <= 0.9377343058586121) {
                                                                votes[0] += 1;
                                                            }

                                                            else {
                                                                votes[1] += 1;
                                                            }
                                                        }

                                                        else {
                                                            votes[0] += 1;
                                                        }
                                                    }

                                                    else {
                                                        if (x[4] <= -0.4430028796195984) {
                                                            if (x[4] <= -0.4500163048505783) {
                                                                votes[0] += 1;
                                                            }

                                                            else {
                                                                votes[0] += 1;
                                                            }
                                                        }

                                                        else {
                                                            if (x[4] <= -0.3914812058210373) {
                                                                votes[1] += 1;
                                                            }

                                                            else {
                                                                votes[0] += 1;
                                                            }
                                                        }
                                                    }
                                                }

                                                else {
                                                    if (x[4] <= -0.44772346317768097) {
                                                        if (x[4] <= -0.44961169362068176) {
                                                            votes[1] += 1;
                                                        }

                                                        else {
                                                            votes[0] += 1;
                                                        }
                                                    }

                                                    else {
                                                        votes[1] += 1;
                                                    }
                                                }
                                            }
                                        }
                                    }
                                }

                                else {
                                    votes[1] += 1;
                                }
                            }

                            else {
                                if (x[2] <= -0.07212436199188232) {
                                    if (x[2] <= -0.1105828508734703) {
                                        if (x[3] <= -0.23706020414829254) {
                                            if (x[1] <= 0.937769740819931) {
                                                if (x[0] <= 0.937732994556427) {
                                                    votes[0] += 1;
                                                }

                                                else {
                                                    votes[1] += 1;
                                                }
                                            }

                                            else {
                                                if (x[4] <= -0.43963104486465454) {
                                                    votes[1] += 1;
                                                }

                                                else {
                                                    votes[0] += 1;
                                                }
                                            }
                                        }

                                        else {
                                            if (x[1] <= 0.9377680718898773) {
                                                votes[1] += 1;
                                            }

                                            else {
                                                if (x[4] <= -0.4292457848787308) {
                                                    if (x[2] <= -0.11465057730674744) {
                                                        votes[0] += 1;
                                                    }

                                                    else {
                                                        if (x[0] <= 0.937739908695221) {
                                                            votes[0] += 1;
                                                        }

                                                        else {
                                                            if (x[0] <= 0.9377480447292328) {
                                                                votes[1] += 1;
                                                            }

                                                            else {
                                                                votes[0] += 1;
                                                            }
                                                        }
                                                    }
                                                }

                                                else {
                                                    votes[1] += 1;
                                                }
                                            }
                                        }
                                    }

                                    else {
                                        if (x[3] <= -0.40231604874134064) {
                                            votes[0] += 1;
                                        }

                                        else {
                                            if (x[1] <= 0.9377709925174713) {
                                                if (x[4] <= -0.4432726353406906) {
                                                    votes[1] += 1;
                                                }

                                                else {
                                                    if (x[4] <= -0.4421936422586441) {
                                                        votes[0] += 1;
                                                    }

                                                    else {
                                                        if (x[0] <= 0.9377357065677643) {
                                                            if (x[1] <= 0.9377697110176086) {
                                                                votes[1] += 1;
                                                            }

                                                            else {
                                                                votes[0] += 1;
                                                            }
                                                        }

                                                        else {
                                                            if (x[1] <= 0.9377692937850952) {
                                                                votes[1] += 1;
                                                            }

                                                            else {
                                                                votes[1] += 1;
                                                            }
                                                        }
                                                    }
                                                }
                                            }

                                            else {
                                                if (x[4] <= -0.44340750575065613) {
                                                    votes[1] += 1;
                                                }

                                                else {
                                                    votes[0] += 1;
                                                }
                                            }
                                        }
                                    }
                                }

                                else {
                                    if (x[2] <= -0.05992118827998638) {
                                        if (x[4] <= -0.4343709796667099) {
                                            if (x[1] <= 0.9377712607383728) {
                                                votes[1] += 1;
                                            }

                                            else {
                                                votes[0] += 1;
                                            }
                                        }

                                        else {
                                            votes[1] += 1;
                                        }
                                    }

                                    else {
                                        if (x[4] <= -0.38716524839401245) {
                                            if (x[0] <= 0.9377481043338776) {
                                                if (x[1] <= 0.9377708435058594) {
                                                    if (x[0] <= 0.9377374053001404) {
                                                        if (x[3] <= -0.3196881264448166) {
                                                            votes[0] += 1;
                                                        }

                                                        else {
                                                            if (x[0] <= 0.9377312064170837) {
                                                                votes[1] += 1;
                                                            }

                                                            else {
                                                                votes[1] += 1;
                                                            }
                                                        }
                                                    }

                                                    else {
                                                        votes[1] += 1;
                                                    }
                                                }

                                                else {
                                                    if (x[0] <= 0.9377357363700867) {
                                                        votes[1] += 1;
                                                    }

                                                    else {
                                                        votes[0] += 1;
                                                    }
                                                }
                                            }

                                            else {
                                                if (x[2] <= -0.021647595800459385) {
                                                    if (x[2] <= -0.049751875922083855) {
                                                        votes[1] += 1;
                                                    }

                                                    else {
                                                        if (x[1] <= 0.9377683699131012) {
                                                            votes[1] += 1;
                                                        }

                                                        else {
                                                            votes[0] += 1;
                                                        }
                                                    }
                                                }

                                                else {
                                                    if (x[2] <= -0.002418351825326681) {
                                                        if (x[4] <= -0.4430028945207596) {
                                                            votes[1] += 1;
                                                        }

                                                        else {
                                                            if (x[3] <= -0.23706020414829254) {
                                                                votes[1] += 1;
                                                            }

                                                            else {
                                                                votes[0] += 1;
                                                            }
                                                        }
                                                    }

                                                    else {
                                                        votes[1] += 1;
                                                    }
                                                }
                                            }
                                        }

                                        else {
                                            votes[0] += 1;
                                        }
                                    }
                                }
                            }
                        }

                        // tree #6
                        if (x[0] <= -0.06435400247573853) {
                            votes[2] += 1;
                        }

                        else {
                            if (x[0] <= 0.9377666115760803) {
                                if (x[2] <= -0.09764008969068527) {
                                    if (x[2] <= -0.11871830001473427) {
                                        if (x[4] <= -0.4024059623479843) {
                                            if (x[2] <= -0.13110636919736862) {
                                                if (x[4] <= -0.4413844048976898) {
                                                    votes[1] += 1;
                                                }

                                                else {
                                                    votes[0] += 1;
                                                }
                                            }

                                            else {
                                                if (x[1] <= 0.9377682209014893) {
                                                    if (x[4] <= -0.4512301832437515) {
                                                        if (x[1] <= 0.9377661049365997) {
                                                            if (x[0] <= 0.9377490282058716) {
                                                                votes[1] += 1;
                                                            }

                                                            else {
                                                                votes[0] += 1;
                                                            }
                                                        }

                                                        else {
                                                            votes[0] += 1;
                                                        }
                                                    }

                                                    else {
                                                        votes[0] += 1;
                                                    }
                                                }

                                                else {
                                                    if (x[3] <= -0.23706020414829254) {
                                                        if (x[2] <= -0.12019747495651245) {
                                                            if (x[1] <= 0.937769740819931) {
                                                                votes[1] += 1;
                                                            }

                                                            else {
                                                                votes[0] += 1;
                                                            }
                                                        }

                                                        else {
                                                            if (x[4] <= -0.44084490835666656) {
                                                                votes[1] += 1;
                                                            }

                                                            else {
                                                                votes[0] += 1;
                                                            }
                                                        }
                                                    }

                                                    else {
                                                        if (x[0] <= 0.9377305209636688) {
                                                            votes[1] += 1;
                                                        }

                                                        else {
                                                            if (x[3] <= -0.1544322781264782) {
                                                                votes[0] += 1;
                                                            }

                                                            else {
                                                                votes[0] += 1;
                                                            }
                                                        }
                                                    }
                                                }
                                            }
                                        }

                                        else {
                                            if (x[0] <= 0.9377362430095673) {
                                                votes[1] += 1;
                                            }

                                            else {
                                                votes[0] += 1;
                                            }
                                        }
                                    }

                                    else {
                                        if (x[0] <= 0.9377391934394836) {
                                            if (x[0] <= 0.9377362430095673) {
                                                if (x[1] <= 0.9377692341804504) {
                                                    if (x[2] <= -0.10854898765683174) {
                                                        votes[0] += 1;
                                                    }

                                                    else {
                                                        if (x[1] <= 0.9377685189247131) {
                                                            if (x[1] <= 0.9377681314945221) {
                                                                votes[0] += 1;
                                                            }

                                                            else {
                                                                votes[1] += 1;
                                                            }
                                                        }

                                                        else {
                                                            votes[0] += 1;
                                                        }
                                                    }
                                                }

                                                else {
                                                    if (x[4] <= -0.430729404091835) {
                                                        if (x[0] <= 0.937732994556427) {
                                                            if (x[1] <= 0.9377700686454773) {
                                                                votes[0] += 1;
                                                            }

                                                            else {
                                                                votes[1] += 1;
                                                            }
                                                        }

                                                        else {
                                                            if (x[4] <= -0.43976591527462006) {
                                                                votes[1] += 1;
                                                            }

                                                            else {
                                                                votes[0] += 1;
                                                            }
                                                        }
                                                    }

                                                    else {
                                                        votes[1] += 1;
                                                    }
                                                }
                                            }

                                            else {
                                                if (x[2] <= -0.1017078161239624) {
                                                    if (x[4] <= -0.42519959807395935) {
                                                        votes[1] += 1;
                                                    }

                                                    else {
                                                        votes[0] += 1;
                                                    }
                                                }

                                                else {
                                                    votes[0] += 1;
                                                }
                                            }
                                        }

                                        else {
                                            if (x[4] <= -0.45352302491664886) {
                                                votes[1] += 1;
                                            }

                                            else {
                                                if (x[1] <= 0.9377678036689758) {
                                                    if (x[0] <= 0.9377610385417938) {
                                                        if (x[4] <= -0.42816680669784546) {
                                                            votes[0] += 1;
                                                        }

                                                        else {
                                                            if (x[4] <= -0.4266832023859024) {
                                                                votes[1] += 1;
                                                            }

                                                            else {
                                                                votes[0] += 1;
                                                            }
                                                        }
                                                    }

                                                    else {
                                                        if (x[0] <= 0.9377613961696625) {
                                                            if (x[4] <= -0.42816680669784546) {
